topology: 4 45 1
0.0101835,0.0112227,0.0171461,-0.00611153,0.104064,0.00230869,0.0434871,-0.00162072,0.0180281,0.278839,-0.00308992,0.0271202,0.0133125,0.0110418,1.68531,0.633615,0.0225899,0.0239722,0.00223926,0.02466,-0.134704,0.0050662,0.00323571,0.0194249,0.0588978,0.0251778,0.0340785,0.000485139,0.0891939,0.0408553,0.468763,1.82072,0.00827494,0.0528992,-0.305009,0.0390175,0.00316168,1.17554,0.0191077,0.772473,-0.000325468,0.00942831,0.0308629,0.124586,0.033438
0.00167975,0.00165906,0.00118797,-0.00155905,2.40069,0.000729409,0.00049292,-0.000520207,0.00111593,0.200851,-0.000976427,0.000542559,0.00149946,0.00164765,0.4569,5.405,0.000779364,0.000721888,0.00072124,0.000661789,-1.1767,0.00140824,0.000996331,0.00101189,1.46111,0.000633554,0.000384059,0.00016684,-0.00193794,0.000431766,0.556392,0.388581,0.00171611,0.000819052,-1.31921,0.000404531,0.000978592,2.95743,0.00102503,0.259195,-0.000115606,0.00172085,0.000438171,0.12277,0.000390428
0.0166005,0.0181216,0.0259555,-0.0103839,-3.28624,0.00397824,0.059841,-0.00279366,0.0270629,-0.275322,-0.00535166,0.0381514,0.0209678,0.0178357,-2.28281,1.8873,0.0326566,0.0343329,0.00387425,0.0351638,1.78133,0.0086742,0.00557679,0.0287991,-0.139013,0.0357909,0.0468437,0.000847235,0.225452,0.0560063,-0.39523,-2.14345,0.0137981,0.0753896,-0.585243,0.0534251,0.00545265,2.25496,0.0284004,-0.73293,-0.000572736,0.0155305,0.0427568,-0.0203651,0.0460188
0.0763392,0.083429,0.118949,-0.0472687,5.35469,0.0179218,0.236232,-0.0125724,0.12377,3.40566,-0.0241261,0.168335,0.0965734,0.0821002,0.853605,-1.70195,0.147124,0.153837,0.0174405,0.157028,2.4907,0.0393492,0.0251663,0.131212,1.09435,0.159444,0.19839,0.00380124,0.446047,0.225856,0.554015,2.01484,0.0632075,0.272768,0.164046,0.218526,0.0246,-1.31869,0.129502,1.61942,-0.00256631,0.0713254,0.184808,0.378086,0.195719
-0.00695228,-0.00756367,-0.0104873,0.00429512,2.8544,-0.001624,-0.0145142,0.00113924,-0.0108406,-0.485516,0.00217667,-0.013479,-0.00871046,-0.0074617,0.824671,-1.81164,-0.0123794,-0.0127293,-0.00157562,-0.0129268,-1.21973,-0.00356824,-0.00227862,-0.0113563,-0.0969497,-0.013053,-0.0144498,-0.000341118,0.0182422,-0.0146387,0.403644,0.944337,-0.00575049,-0.0131345,-0.599987,-0.0146554,-0.00222644,-2.54137,-0.0112509,-0.658085,0.000228981,-0.00648664,-0.0140888,0.0684808,-0.0143921
0.0172609
0.0189586
0.0280042
-0.0104886
0.23884
0.00394902
0.0646822
-0.00276945
0.0292951
-1.33596
-0.00530989
0.0420584
0.0222215
0.0186479
-1.05247
-1.18049
0.0357938
0.0377292
0.00383825
0.0386737
0.273648
0.00870208
0.00554732
0.0313183
0.713535
0.0393884
0.0515629
0.000833947
0.182663
0.0609466
0.576422
0.915092
0.0141461
0.0787946
0.528274
0.0583728
0.00542126
0.823929
0.0308547
0.987508
-0.000561749
0.0160533
0.0471718
0.120642
0.0506867
-0.751778


